digraph Tree {
node [shape=box, style="filled, rounded", color="black", fontname="helvetica"] ;
edge [fontname="helvetica"] ;
0 [label="X2 <= 0.375\ngini = 0.5\nsamples = 375\nvalue = [189, 186]\nclass = Green", fillcolor="#fffdfc"] ;
1 [label="X1 <= -0.436\ngini = 0.351\nsamples = 216\nvalue = [49, 167]\nclass = Blue", fillcolor="#73baed"] ;
0 -> 1 [labeldistance=2.5, labelangle=45, headlabel="True"] ;
2 [label="gini = 0.0\nsamples = 20\nvalue = [20, 0]\nclass = Green", fillcolor="#e58139"] ;
1 -> 2 ;
3 [label="gini = 0.252\nsamples = 196\nvalue = [29, 167]\nclass = Blue", fillcolor="#5baeea"] ;
1 -> 3 ;
4 [label="X1 <= 1.556\ngini = 0.21\nsamples = 159\nvalue = [140, 19]\nclass = Green", fillcolor="#e99254"] ;
0 -> 4 [labeldistance=2.5, labelangle=-45, headlabel="False"] ;
5 [label="gini = 0.114\nsamples = 149\nvalue = [140, 9]\nclass = Green", fillcolor="#e78946"] ;
4 -> 5 ;
6 [label="gini = 0.0\nsamples = 10\nvalue = [0, 10]\nclass = Blue", fillcolor="#399de5"] ;
4 -> 6 ;
}