digraph Tree {
node [shape=box, style="filled, rounded", color="black", fontname="helvetica"] ;
edge [fontname="helvetica"] ;
0 [label="flipper_length_mm <= 206.5\nsquared_error = 631495.804\nsamples = 259\nvalue = 4200.579", fillcolor="#f5cdb1"] ;
1 [label="culmen_depth_mm <= 18.05\nsquared_error = 175123.136\nsamples = 164\nvalue = 3709.299", fillcolor="#fae7d9"] ;
0 -> 1 [labeldistance=2.5, labelangle=45, headlabel="True"] ;
2 [label="FEMALE <= 0.5\nsquared_error = 107766.864\nsamples = 65\nvalue = 3446.538", fillcolor="#fdf5ef"] ;
1 -> 2 ;
3 [label="squared_error = 126141.869\nsamples = 17\nvalue = 3705.882", fillcolor="#fae7da"] ;
2 -> 3 ;
4 [label="culmen_depth_mm <= 17.15\nsquared_error = 69001.465\nsamples = 48\nvalue = 3354.688", fillcolor="#fefaf7"] ;
2 -> 4 ;
5 [label="squared_error = 85564.0\nsamples = 25\nvalue = 3256.0", fillcolor="#ffffff"] ;
4 -> 5 ;
6 [label="squared_error = 28905.955\nsamples = 23\nvalue = 3461.957", fillcolor="#fdf4ee"] ;
4 -> 6 ;
7 [label="flipper_length_mm <= 194.5\nsquared_error = 144252.755\nsamples = 99\nvalue = 3881.818", fillcolor="#f8decb"] ;
1 -> 7 ;
8 [label="culmen_depth_mm <= 18.75\nsquared_error = 131476.285\nsamples = 52\nvalue = 3761.058", fillcolor="#fae4d5"] ;
7 -> 8 ;
9 [label="squared_error = 98388.43\nsamples = 22\nvalue = 3579.545", fillcolor="#fbeee4"] ;
8 -> 9 ;
10 [label="squared_error = 113861.806\nsamples = 30\nvalue = 3894.167", fillcolor="#f8ddca"] ;
8 -> 10 ;
11 [label="flipper_length_mm <= 200.5\nsquared_error = 124403.01\nsamples = 47\nvalue = 4015.426", fillcolor="#f7d7c0"] ;
7 -> 11 ;
12 [label="squared_error = 135195.109\nsamples = 31\nvalue = 3936.29", fillcolor="#f8dbc7"] ;
11 -> 12 ;
13 [label="squared_error = 67851.562\nsamples = 16\nvalue = 4168.75", fillcolor="#f5cfb3"] ;
11 -> 13 ;
14 [label="flipper_length_mm <= 214.5\nsquared_error = 283399.584\nsamples = 95\nvalue = 5048.684", fillcolor="#eba06a"] ;
0 -> 14 [labeldistance=2.5, labelangle=-45, headlabel="False"] ;
15 [label="flipper_length_mm <= 210.5\nsquared_error = 153099.589\nsamples = 34\nvalue = 4556.618", fillcolor="#f1ba93"] ;
14 -> 15 ;
16 [label="flipper_length_mm <= 209.5\nsquared_error = 127970.522\nsamples = 21\nvalue = 4444.048", fillcolor="#f2c09d"] ;
15 -> 16 ;
17 [label="squared_error = 146869.835\nsamples = 11\nvalue = 4552.273", fillcolor="#f1bb94"] ;
16 -> 17 ;
18 [label="squared_error = 80125.0\nsamples = 10\nvalue = 4325.0", fillcolor="#f3c7a6"] ;
16 -> 18 ;
19 [label="squared_error = 140155.325\nsamples = 13\nvalue = 4738.462", fillcolor="#efb184"] ;
15 -> 19 ;
20 [label="culmen_length_mm <= 47.75\nsquared_error = 145846.211\nsamples = 61\nvalue = 5322.951", fillcolor="#e89254"] ;
14 -> 20 ;
21 [label="culmen_depth_mm <= 15.05\nsquared_error = 80299.745\nsamples = 28\nvalue = 5053.571", fillcolor="#eba06a"] ;
20 -> 21 ;
22 [label="squared_error = 48845.215\nsamples = 16\nvalue = 4920.312", fillcolor="#eda775"] ;
21 -> 22 ;
23 [label="squared_error = 66992.188\nsamples = 12\nvalue = 5231.25", fillcolor="#e9975b"] ;
21 -> 23 ;
24 [label="culmen_depth_mm <= 15.65\nsquared_error = 87649.219\nsamples = 33\nvalue = 5551.515", fillcolor="#e68641"] ;
20 -> 24 ;
25 [label="squared_error = 123733.333\nsamples = 15\nvalue = 5440.0", fillcolor="#e78c4a"] ;
24 -> 25 ;
26 [label="squared_error = 38580.247\nsamples = 18\nvalue = 5644.444", fillcolor="#e58139"] ;
24 -> 26 ;
}