digraph Tree {
node [shape=box, style="filled, rounded", color="black", fontname="helvetica"] ;
edge [fontname="helvetica"] ;
0 [label="flipper_length_mm <= 206.5\nsquared_error = 631495.804\nsamples = 259\nvalue = 4200.579", fillcolor="#f4caac"] ;
1 [label="culmen_depth_mm <= 18.05\nsquared_error = 175123.136\nsamples = 164\nvalue = 3709.299", fillcolor="#f8dcc7"] ;
0 -> 1 [labeldistance=2.5, labelangle=45, headlabel="True"] ;
2 [label="FEMALE <= 0.5\nsquared_error = 107766.864\nsamples = 65\nvalue = 3446.538", fillcolor="#fae5d6"] ;
1 -> 2 ;
3 [label="flipper_length_mm <= 200.5\nsquared_error = 126141.869\nsamples = 17\nvalue = 3705.882", fillcolor="#f8dcc8"] ;
2 -> 3 ;
4 [label="flipper_length_mm <= 184.5\nsquared_error = 77927.246\nsamples = 16\nvalue = 3648.438", fillcolor="#f8decb"] ;
3 -> 4 ;
5 [label="flipper_length_mm <= 181.5\nsquared_error = 68003.472\nsamples = 6\nvalue = 3454.167", fillcolor="#fae5d6"] ;
4 -> 5 ;
6 [label="flipper_length_mm <= 179.0\nsquared_error = 43242.188\nsamples = 4\nvalue = 3593.75", fillcolor="#f9e0ce"] ;
5 -> 6 ;
7 [label="squared_error = 0.0\nsamples = 1\nvalue = 3250.0", fillcolor="#fbece1"] ;
6 -> 7 ;
8 [label="culmen_length_mm <= 38.85\nsquared_error = 5138.889\nsamples = 3\nvalue = 3708.333", fillcolor="#f8dcc8"] ;
6 -> 8 ;
9 [label="squared_error = 0.0\nsamples = 1\nvalue = 3800.0", fillcolor="#f7d8c2"] ;
8 -> 9 ;
10 [label="species <= 0.5\nsquared_error = 1406.25\nsamples = 2\nvalue = 3662.5", fillcolor="#f8ddca"] ;
8 -> 10 ;
11 [label="squared_error = 0.0\nsamples = 1\nvalue = 3625.0", fillcolor="#f8dfcc"] ;
10 -> 11 ;
12 [label="squared_error = 0.0\nsamples = 1\nvalue = 3700.0", fillcolor="#f8dcc8"] ;
10 -> 12 ;
13 [label="Dream <= 0.5\nsquared_error = 625.0\nsamples = 2\nvalue = 3175.0", fillcolor="#fceee5"] ;
5 -> 13 ;
14 [label="squared_error = 0.0\nsamples = 1\nvalue = 3200.0", fillcolor="#fbeee4"] ;
13 -> 14 ;
15 [label="squared_error = 0.0\nsamples = 1\nvalue = 3150.0", fillcolor="#fcefe6"] ;
13 -> 15 ;
16 [label="culmen_length_mm <= 40.2\nsquared_error = 47650.0\nsamples = 10\nvalue = 3765.0", fillcolor="#f7dac4"] ;
4 -> 16 ;
17 [label="squared_error = 0.0\nsamples = 1\nvalue = 4250.0", fillcolor="#f4c9aa"] ;
16 -> 17 ;
18 [label="culmen_length_mm <= 45.45\nsquared_error = 23904.321\nsamples = 9\nvalue = 3711.111", fillcolor="#f8dcc7"] ;
16 -> 18 ;
19 [label="culmen_length_mm <= 40.9\nsquared_error = 9305.556\nsamples = 3\nvalue = 3858.333", fillcolor="#f7d6bf"] ;
18 -> 19 ;
20 [label="squared_error = 0.0\nsamples = 1\nvalue = 3725.0", fillcolor="#f8dbc7"] ;
19 -> 20 ;
21 [label="flipper_length_mm <= 194.0\nsquared_error = 625.0\nsamples = 2\nvalue = 3925.0", fillcolor="#f6d4bc"] ;
19 -> 21 ;
22 [label="squared_error = 0.0\nsamples = 1\nvalue = 3900.0", fillcolor="#f6d5bd"] ;
21 -> 22 ;
23 [label="squared_error = 0.0\nsamples = 1\nvalue = 3950.0", fillcolor="#f6d3ba"] ;
21 -> 23 ;
24 [label="culmen_depth_mm <= 17.65\nsquared_error = 14947.917\nsamples = 6\nvalue = 3637.5", fillcolor="#f8decb"] ;
18 -> 24 ;
25 [label="flipper_length_mm <= 192.0\nsquared_error = 11679.688\nsamples = 4\nvalue = 3581.25", fillcolor="#f9e0cf"] ;
24 -> 25 ;
26 [label="culmen_length_mm <= 47.35\nsquared_error = 15625.0\nsamples = 2\nvalue = 3525.0", fillcolor="#f9e2d2"] ;
25 -> 26 ;
27 [label="squared_error = 0.0\nsamples = 1\nvalue = 3650.0", fillcolor="#f8decb"] ;
26 -> 27 ;
28 [label="squared_error = 0.0\nsamples = 1\nvalue = 3400.0", fillcolor="#fae7d9"] ;
26 -> 28 ;
29 [label="culmen_length_mm <= 47.75\nsquared_error = 1406.25\nsamples = 2\nvalue = 3637.5", fillcolor="#f8decb"] ;
25 -> 29 ;
30 [label="squared_error = 0.0\nsamples = 1\nvalue = 3600.0", fillcolor="#f8e0ce"] ;
29 -> 30 ;
31 [label="squared_error = 0.0\nsamples = 1\nvalue = 3675.0", fillcolor="#f8ddc9"] ;
29 -> 31 ;
32 [label="culmen_length_mm <= 46.5\nsquared_error = 2500.0\nsamples = 2\nvalue = 3750.0", fillcolor="#f7dac5"] ;
24 -> 32 ;
33 [label="squared_error = 0.0\nsamples = 1\nvalue = 3700.0", fillcolor="#f8dcc8"] ;
32 -> 33 ;
34 [label="squared_error = 0.0\nsamples = 1\nvalue = 3800.0", fillcolor="#f7d8c2"] ;
32 -> 34 ;
35 [label="squared_error = 0.0\nsamples = 1\nvalue = 4625.0", fillcolor="#f1bc95"] ;
3 -> 35 ;
36 [label="culmen_depth_mm <= 17.15\nsquared_error = 69001.465\nsamples = 48\nvalue = 3354.688", fillcolor="#fae8db"] ;
2 -> 36 ;
37 [label="flipper_length_mm <= 195.5\nsquared_error = 85564.0\nsamples = 25\nvalue = 3256.0", fillcolor="#fbece0"] ;
36 -> 37 ;
38 [label="culmen_length_mm <= 46.85\nsquared_error = 77985.537\nsamples = 22\nvalue = 3215.909", fillcolor="#fbede3"] ;
37 -> 38 ;
39 [label="culmen_length_mm <= 45.55\nsquared_error = 68421.202\nsamples = 21\nvalue = 3240.476", fillcolor="#fbece1"] ;
38 -> 39 ;
40 [label="flipper_length_mm <= 184.5\nsquared_error = 59373.269\nsamples = 19\nvalue = 3201.316", fillcolor="#fbede3"] ;
39 -> 40 ;
41 [label="Biscoe <= 0.5\nsquared_error = 12656.25\nsamples = 2\nvalue = 2962.5", fillcolor="#fdf6f1"] ;
40 -> 41 ;
42 [label="squared_error = 0.0\nsamples = 1\nvalue = 2850.0", fillcolor="#fefaf7"] ;
41 -> 42 ;
43 [label="squared_error = 0.0\nsamples = 1\nvalue = 3075.0", fillcolor="#fcf2ea"] ;
41 -> 43 ;
44 [label="culmen_depth_mm <= 16.0\nsquared_error = 57370.242\nsamples = 17\nvalue = 3229.412", fillcolor="#fbece2"] ;
40 -> 44 ;
45 [label="squared_error = 0.0\nsamples = 2\nvalue = 3050.0", fillcolor="#fcf3ec"] ;
44 -> 45 ;
46 [label="culmen_depth_mm <= 16.55\nsquared_error = 60155.556\nsamples = 15\nvalue = 3253.333", fillcolor="#fbece1"] ;
44 -> 46 ;
47 [label="culmen_depth_mm <= 16.15\nsquared_error = 7222.222\nsamples = 3\nvalue = 3433.333", fillcolor="#fae5d7"] ;
46 -> 47 ;
48 [label="squared_error = 0.0\nsamples = 1\nvalue = 3550.0", fillcolor="#f9e1d0"] ;
47 -> 48 ;
49 [label="Dream <= 0.5\nsquared_error = 625.0\nsamples = 2\nvalue = 3375.0", fillcolor="#fae7da"] ;
47 -> 49 ;
50 [label="squared_error = 0.0\nsamples = 1\nvalue = 3350.0", fillcolor="#fae8db"] ;
49 -> 50 ;
51 [label="squared_error = 0.0\nsamples = 1\nvalue = 3400.0", fillcolor="#fae7d9"] ;
49 -> 51 ;
52 [label="Torgersen <= 0.5\nsquared_error = 63263.889\nsamples = 12\nvalue = 3208.333", fillcolor="#fbede3"] ;
46 -> 52 ;
53 [label="culmen_length_mm <= 34.85\nsquared_error = 25612.245\nsamples = 7\nvalue = 3128.571", fillcolor="#fcf0e7"] ;
52 -> 53 ;
54 [label="squared_error = 0.0\nsamples = 1\nvalue = 3400.0", fillcolor="#fae7d9"] ;
53 -> 54 ;
55 [label="culmen_length_mm <= 44.2\nsquared_error = 15555.556\nsamples = 6\nvalue = 3083.333", fillcolor="#fcf2ea"] ;
53 -> 55 ;
56 [label="culmen_length_mm <= 42.05\nsquared_error = 12000.0\nsamples = 5\nvalue = 3050.0", fillcolor="#fcf3ec"] ;
55 -> 56 ;
57 [label="culmen_length_mm <= 39.1\nsquared_error = 7968.75\nsamples = 4\nvalue = 3087.5", fillcolor="#fcf1ea"] ;
56 -> 57 ;
58 [label="culmen_length_mm <= 36.35\nsquared_error = 5000.0\nsamples = 3\nvalue = 3050.0", fillcolor="#fcf3ec"] ;
57 -> 58 ;
59 [label="squared_error = 0.0\nsamples = 1\nvalue = 3150.0", fillcolor="#fcefe6"] ;
58 -> 59 ;
60 [label="squared_error = 0.0\nsamples = 2\nvalue = 3000.0", fillcolor="#fdf4ee"] ;
58 -> 60 ;
61 [label="squared_error = 0.0\nsamples = 1\nvalue = 3200.0", fillcolor="#fbeee4"] ;
57 -> 61 ;
62 [label="squared_error = 0.0\nsamples = 1\nvalue = 2900.0", fillcolor="#fef8f4"] ;
56 -> 62 ;
63 [label="squared_error = 0.0\nsamples = 1\nvalue = 3250.0", fillcolor="#fbece1"] ;
55 -> 63 ;
64 [label="culmen_length_mm <= 39.75\nsquared_error = 94600.0\nsamples = 5\nvalue = 3320.0", fillcolor="#fbe9dd"] ;
52 -> 64 ;
65 [label="flipper_length_mm <= 186.5\nsquared_error = 73125.0\nsamples = 4\nvalue = 3225.0", fillcolor="#fbede2"] ;
64 -> 65 ;
66 [label="squared_error = 0.0\nsamples = 1\nvalue = 3600.0", fillcolor="#f8e0ce"] ;
65 -> 66 ;
67 [label="culmen_length_mm <= 35.8\nsquared_error = 35000.0\nsamples = 3\nvalue = 3100.0", fillcolor="#fcf1e9"] ;
65 -> 67 ;
68 [label="squared_error = 0.0\nsamples = 1\nvalue = 3350.0", fillcolor="#fae8db"] ;
67 -> 68 ;
69 [label="culmen_length_mm <= 37.25\nsquared_error = 5625.0\nsamples = 2\nvalue = 2975.0", fillcolor="#fdf5f0"] ;
67 -> 69 ;
70 [label="squared_error = 0.0\nsamples = 1\nvalue = 3050.0", fillcolor="#fcf3ec"] ;
69 -> 70 ;
71 [label="squared_error = 0.0\nsamples = 1\nvalue = 2900.0", fillcolor="#fef8f4"] ;
69 -> 71 ;
72 [label="squared_error = 0.0\nsamples = 1\nvalue = 3700.0", fillcolor="#f8dcc8"] ;
64 -> 72 ;
73 [label="culmen_depth_mm <= 16.8\nsquared_error = 1406.25\nsamples = 2\nvalue = 3612.5", fillcolor="#f8dfcd"] ;
39 -> 73 ;
74 [label="squared_error = 0.0\nsamples = 1\nvalue = 3650.0", fillcolor="#f8decb"] ;
73 -> 74 ;
75 [label="squared_error = 0.0\nsamples = 1\nvalue = 3575.0", fillcolor="#f9e0cf"] ;
73 -> 75 ;
76 [label="squared_error = 0.0\nsamples = 1\nvalue = 2700.0", fillcolor="#ffffff"] ;
38 -> 76 ;
77 [label="Torgersen <= 0.5\nsquared_error = 42916.667\nsamples = 3\nvalue = 3550.0", fillcolor="#f9e1d0"] ;
37 -> 77 ;
78 [label="flipper_length_mm <= 197.5\nsquared_error = 7656.25\nsamples = 2\nvalue = 3412.5", fillcolor="#fae6d8"] ;
77 -> 78 ;
79 [label="squared_error = 0.0\nsamples = 1\nvalue = 3500.0", fillcolor="#f9e3d3"] ;
78 -> 79 ;
80 [label="squared_error = 0.0\nsamples = 1\nvalue = 3325.0", fillcolor="#fae9dd"] ;
78 -> 80 ;
81 [label="squared_error = 0.0\nsamples = 1\nvalue = 3825.0", fillcolor="#f7d8c1"] ;
77 -> 81 ;
82 [label="flipper_length_mm <= 185.5\nsquared_error = 28905.955\nsamples = 23\nvalue = 3461.957", fillcolor="#f9e4d5"] ;
36 -> 82 ;
83 [label="squared_error = 0.0\nsamples = 2\nvalue = 3700.0", fillcolor="#f8dcc8"] ;
82 -> 83 ;
84 [label="culmen_length_mm <= 35.85\nsquared_error = 25748.299\nsamples = 21\nvalue = 3439.286", fillcolor="#fae5d6"] ;
82 -> 84 ;
85 [label="culmen_depth_mm <= 17.7\nsquared_error = 12617.188\nsamples = 4\nvalue = 3606.25", fillcolor="#f8dfcd"] ;
84 -> 85 ;
86 [label="squared_error = 0.0\nsamples = 1\nvalue = 3700.0", fillcolor="#f8dcc8"] ;
85 -> 86 ;
87 [label="flipper_length_mm <= 191.0\nsquared_error = 12916.667\nsamples = 3\nvalue = 3575.0", fillcolor="#f9e0cf"] ;
85 -> 87 ;
88 [label="squared_error = 0.0\nsamples = 1\nvalue = 3450.0", fillcolor="#fae5d6"] ;
87 -> 88 ;
89 [label="Dream <= 0.5\nsquared_error = 7656.25\nsamples = 2\nvalue = 3637.5", fillcolor="#f8decb"] ;
87 -> 89 ;
90 [label="squared_error = 0.0\nsamples = 1\nvalue = 3725.0", fillcolor="#f8dbc7"] ;
89 -> 90 ;
91 [label="squared_error = 0.0\nsamples = 1\nvalue = 3550.0", fillcolor="#f9e1d0"] ;
89 -> 91 ;
92 [label="flipper_length_mm <= 195.5\nsquared_error = 20735.294\nsamples = 17\nvalue = 3400.0", fillcolor="#fae7d9"] ;
84 -> 92 ;
93 [label="flipper_length_mm <= 186.5\nsquared_error = 12722.222\nsamples = 15\nvalue = 3366.667", fillcolor="#fae8da"] ;
92 -> 93 ;
94 [label="culmen_length_mm <= 39.3\nsquared_error = 625.0\nsamples = 2\nvalue = 3525.0", fillcolor="#f9e2d2"] ;
93 -> 94 ;
95 [label="squared_error = 0.0\nsamples = 1\nvalue = 3550.0", fillcolor="#f9e1d0"] ;
94 -> 95 ;
96 [label="squared_error = 0.0\nsamples = 1\nvalue = 3500.0", fillcolor="#f9e3d3"] ;
94 -> 96 ;
97 [label="Torgersen <= 0.5\nsquared_error = 10133.136\nsamples = 13\nvalue = 3342.308", fillcolor="#fae9dc"] ;
93 -> 97 ;
98 [label="culmen_length_mm <= 40.55\nsquared_error = 7638.889\nsamples = 12\nvalue = 3358.333", fillcolor="#fae8db"] ;
97 -> 98 ;
99 [label="culmen_length_mm <= 38.65\nsquared_error = 5693.359\nsamples = 8\nvalue = 3328.125", fillcolor="#fae9dc"] ;
98 -> 99 ;
100 [label="culmen_length_mm <= 36.1\nsquared_error = 3350.0\nsamples = 5\nvalue = 3370.0", fillcolor="#fae8da"] ;
99 -> 100 ;
101 [label="squared_error = 0.0\nsamples = 1\nvalue = 3450.0", fillcolor="#fae5d6"] ;
100 -> 101 ;
102 [label="Dream <= 0.5\nsquared_error = 2187.5\nsamples = 4\nvalue = 3350.0", fillcolor="#fae8db"] ;
100 -> 102 ;
103 [label="squared_error = 0.0\nsamples = 1\nvalue = 3300.0", fillcolor="#fbeade"] ;
102 -> 103 ;
104 [label="flipper_length_mm <= 188.5\nsquared_error = 1805.556\nsamples = 3\nvalue = 3366.667", fillcolor="#fae8da"] ;
102 -> 104 ;
105 [label="squared_error = 0.0\nsamples = 1\nvalue = 3425.0", fillcolor="#fae6d7"] ;
104 -> 105 ;
106 [label="culmen_depth_mm <= 17.85\nsquared_error = 156.25\nsamples = 2\nvalue = 3337.5", fillcolor="#fae9dc"] ;
104 -> 106 ;
107 [label="squared_error = 0.0\nsamples = 1\nvalue = 3350.0", fillcolor="#fae8db"] ;
106 -> 107 ;
108 [label="squared_error = 0.0\nsamples = 1\nvalue = 3325.0", fillcolor="#fae9dd"] ;
106 -> 108 ;
109 [label="culmen_depth_mm <= 17.85\nsquared_error = 1805.556\nsamples = 3\nvalue = 3258.333", fillcolor="#fbebe0"] ;
99 -> 109 ;
110 [label="flipper_length_mm <= 189.5\nsquared_error = 156.25\nsamples = 2\nvalue = 3287.5", fillcolor="#fbeadf"] ;
109 -> 110 ;
111 [label="squared_error = 0.0\nsamples = 1\nvalue = 3300.0", fillcolor="#fbeade"] ;
110 -> 111 ;
112 [label="squared_error = 0.0\nsamples = 1\nvalue = 3275.0", fillcolor="#fbebdf"] ;
110 -> 112 ;
113 [label="squared_error = 0.0\nsamples = 1\nvalue = 3200.0", fillcolor="#fbeee4"] ;
109 -> 113 ;
114 [label="culmen_length_mm <= 46.6\nsquared_error = 6054.688\nsamples = 4\nvalue = 3418.75", fillcolor="#fae6d7"] ;
98 -> 114 ;
115 [label="culmen_depth_mm <= 17.55\nsquared_error = 156.25\nsamples = 2\nvalue = 3487.5", fillcolor="#f9e3d4"] ;
114 -> 115 ;
116 [label="squared_error = 0.0\nsamples = 1\nvalue = 3475.0", fillcolor="#f9e4d4"] ;
115 -> 116 ;
117 [label="squared_error = 0.0\nsamples = 1\nvalue = 3500.0", fillcolor="#f9e3d3"] ;
115 -> 117 ;
118 [label="culmen_length_mm <= 48.4\nsquared_error = 2500.0\nsamples = 2\nvalue = 3350.0", fillcolor="#fae8db"] ;
114 -> 118 ;
119 [label="squared_error = 0.0\nsamples = 1\nvalue = 3300.0", fillcolor="#fbeade"] ;
118 -> 119 ;
120 [label="squared_error = 0.0\nsamples = 1\nvalue = 3400.0", fillcolor="#fae7d9"] ;
118 -> 120 ;
121 [label="squared_error = 0.0\nsamples = 1\nvalue = 3150.0", fillcolor="#fcefe6"] ;
97 -> 121 ;
122 [label="Biscoe <= 0.5\nsquared_error = 10000.0\nsamples = 2\nvalue = 3650.0", fillcolor="#f8decb"] ;
92 -> 122 ;
123 [label="squared_error = 0.0\nsamples = 1\nvalue = 3550.0", fillcolor="#f9e1d0"] ;
122 -> 123 ;
124 [label="squared_error = 0.0\nsamples = 1\nvalue = 3750.0", fillcolor="#f7dac5"] ;
122 -> 124 ;
125 [label="flipper_length_mm <= 194.5\nsquared_error = 144252.755\nsamples = 99\nvalue = 3881.818", fillcolor="#f6d6be"] ;
1 -> 125 ;
126 [label="culmen_depth_mm <= 18.75\nsquared_error = 131476.285\nsamples = 52\nvalue = 3761.058", fillcolor="#f7dac5"] ;
125 -> 126 ;
127 [label="culmen_length_mm <= 35.55\nsquared_error = 98388.43\nsamples = 22\nvalue = 3579.545", fillcolor="#f9e0cf"] ;
126 -> 127 ;
128 [label="culmen_depth_mm <= 18.25\nsquared_error = 45156.25\nsamples = 2\nvalue = 3112.5", fillcolor="#fcf1e8"] ;
127 -> 128 ;
129 [label="squared_error = 0.0\nsamples = 1\nvalue = 2900.0", fillcolor="#fef8f4"] ;
128 -> 129 ;
130 [label="squared_error = 0.0\nsamples = 1\nvalue = 3325.0", fillcolor="#fae9dd"] ;
128 -> 130 ;
131 [label="culmen_depth_mm <= 18.55\nsquared_error = 79717.188\nsamples = 20\nvalue = 3626.25", fillcolor="#f8dfcc"] ;
127 -> 131 ;
132 [label="culmen_length_mm <= 38.0\nsquared_error = 54975.0\nsamples = 10\nvalue = 3780.0", fillcolor="#f7d9c4"] ;
131 -> 132 ;
133 [label="culmen_depth_mm <= 18.2\nsquared_error = 35600.0\nsamples = 5\nvalue = 3605.0", fillcolor="#f8dfcd"] ;
132 -> 133 ;
134 [label="culmen_length_mm <= 37.5\nsquared_error = 5625.0\nsamples = 2\nvalue = 3825.0", fillcolor="#f7d8c1"] ;
133 -> 134 ;
135 [label="squared_error = 0.0\nsamples = 1\nvalue = 3900.0", fillcolor="#f6d5bd"] ;
134 -> 135 ;
136 [label="squared_error = 0.0\nsamples = 1\nvalue = 3750.0", fillcolor="#f7dac5"] ;
134 -> 136 ;
137 [label="culmen_depth_mm <= 18.35\nsquared_error = 1805.556\nsamples = 3\nvalue = 3458.333", fillcolor="#fae4d5"] ;
133 -> 137 ;
138 [label="squared_error = 0.0\nsamples = 1\nvalue = 3400.0", fillcolor="#fae7d9"] ;
137 -> 138 ;
139 [label="FEMALE <= 0.5\nsquared_error = 156.25\nsamples = 2\nvalue = 3487.5", fillcolor="#f9e3d4"] ;
137 -> 139 ;
140 [label="squared_error = 0.0\nsamples = 1\nvalue = 3475.0", fillcolor="#f9e4d4"] ;
139 -> 140 ;
141 [label="squared_error = 0.0\nsamples = 1\nvalue = 3500.0", fillcolor="#f9e3d3"] ;
139 -> 141 ;
142 [label="culmen_length_mm <= 46.4\nsquared_error = 13100.0\nsamples = 5\nvalue = 3955.0", fillcolor="#f6d3ba"] ;
132 -> 142 ;
143 [label="culmen_length_mm <= 40.4\nsquared_error = 6250.0\nsamples = 4\nvalue = 4000.0", fillcolor="#f6d2b8"] ;
142 -> 143 ;
144 [label="FEMALE <= 0.5\nsquared_error = 625.0\nsamples = 2\nvalue = 3925.0", fillcolor="#f6d4bc"] ;
143 -> 144 ;
145 [label="squared_error = 0.0\nsamples = 1\nvalue = 3900.0", fillcolor="#f6d5bd"] ;
144 -> 145 ;
146 [label="squared_error = 0.0\nsamples = 1\nvalue = 3950.0", fillcolor="#f6d3ba"] ;
144 -> 146 ;
147 [label="Torgersen <= 0.5\nsquared_error = 625.0\nsamples = 2\nvalue = 4075.0", fillcolor="#f5cfb3"] ;
143 -> 147 ;
148 [label="squared_error = 0.0\nsamples = 1\nvalue = 4100.0", fillcolor="#f5ceb2"] ;
147 -> 148 ;
149 [label="squared_error = 0.0\nsamples = 1\nvalue = 4050.0", fillcolor="#f5d0b5"] ;
147 -> 149 ;
150 [label="squared_error = 0.0\nsamples = 1\nvalue = 3775.0", fillcolor="#f7d9c4"] ;
142 -> 150 ;
151 [label="flipper_length_mm <= 192.0\nsquared_error = 57181.25\nsamples = 10\nvalue = 3472.5", fillcolor="#f9e4d5"] ;
131 -> 151 ;
152 [label="culmen_length_mm <= 48.95\nsquared_error = 26527.778\nsamples = 9\nvalue = 3533.333", fillcolor="#f9e2d1"] ;
151 -> 152 ;
153 [label="Biscoe <= 0.5\nsquared_error = 18554.688\nsamples = 8\nvalue = 3568.75", fillcolor="#f9e1cf"] ;
152 -> 153 ;
154 [label="flipper_length_mm <= 184.5\nsquared_error = 19150.0\nsamples = 5\nvalue = 3510.0", fillcolor="#f9e3d2"] ;
153 -> 154 ;
155 [label="squared_error = 0.0\nsamples = 1\nvalue = 3750.0", fillcolor="#f7dac5"] ;
154 -> 155 ;
156 [label="Dream <= 0.5\nsquared_error = 5937.5\nsamples = 4\nvalue = 3450.0", fillcolor="#fae5d6"] ;
154 -> 156 ;
157 [label="squared_error = 0.0\nsamples = 1\nvalue = 3325.0", fillcolor="#fae9dd"] ;
156 -> 157 ;
158 [label="culmen_length_mm <= 45.9\nsquared_error = 972.222\nsamples = 3\nvalue = 3491.667", fillcolor="#f9e3d3"] ;
156 -> 158 ;
159 [label="species <= 0.5\nsquared_error = 156.25\nsamples = 2\nvalue = 3512.5", fillcolor="#f9e3d2"] ;
158 -> 159 ;
160 [label="squared_error = 0.0\nsamples = 1\nvalue = 3500.0", fillcolor="#f9e3d3"] ;
159 -> 160 ;
161 [label="squared_error = 0.0\nsamples = 1\nvalue = 3525.0", fillcolor="#f9e2d2"] ;
159 -> 161 ;
162 [label="squared_error = 0.0\nsamples = 1\nvalue = 3450.0", fillcolor="#fae5d6"] ;
158 -> 162 ;
163 [label="flipper_length_mm <= 185.0\nsquared_error = 2222.222\nsamples = 3\nvalue = 3666.667", fillcolor="#f8ddca"] ;
153 -> 163 ;
164 [label="squared_error = 0.0\nsamples = 1\nvalue = 3600.0", fillcolor="#f8e0ce"] ;
163 -> 164 ;
165 [label="squared_error = 0.0\nsamples = 2\nvalue = 3700.0", fillcolor="#f8dcc8"] ;
163 -> 165 ;
166 [label="squared_error = 0.0\nsamples = 1\nvalue = 3250.0", fillcolor="#fbece1"] ;
152 -> 166 ;
167 [label="squared_error = 0.0\nsamples = 1\nvalue = 2925.0", fillcolor="#fdf7f3"] ;
151 -> 167 ;
168 [label="flipper_length_mm <= 183.0\nsquared_error = 113861.806\nsamples = 30\nvalue = 3894.167", fillcolor="#f6d5bd"] ;
126 -> 168 ;
169 [label="culmen_depth_mm <= 18.95\nsquared_error = 79305.556\nsamples = 3\nvalue = 3558.333", fillcolor="#f9e1d0"] ;
168 -> 169 ;
170 [label="squared_error = 0.0\nsamples = 1\nvalue = 3950.0", fillcolor="#f6d3ba"] ;
169 -> 170 ;
171 [label="culmen_length_mm <= 39.35\nsquared_error = 3906.25\nsamples = 2\nvalue = 3362.5", fillcolor="#fae8db"] ;
169 -> 171 ;
172 [label="squared_error = 0.0\nsamples = 1\nvalue = 3300.0", fillcolor="#fbeade"] ;
171 -> 172 ;
173 [label="squared_error = 0.0\nsamples = 1\nvalue = 3425.0", fillcolor="#fae6d7"] ;
171 -> 173 ;
174 [label="flipper_length_mm <= 192.0\nsquared_error = 103777.435\nsamples = 27\nvalue = 3931.481", fillcolor="#f6d4bb"] ;
168 -> 174 ;
175 [label="culmen_length_mm <= 39.45\nsquared_error = 103171.745\nsamples = 19\nvalue = 4015.789", fillcolor="#f5d1b7"] ;
174 -> 175 ;
176 [label="culmen_depth_mm <= 19.1\nsquared_error = 31983.471\nsamples = 11\nvalue = 3827.273", fillcolor="#f7d8c1"] ;
175 -> 176 ;
177 [label="flipper_length_mm <= 188.5\nsquared_error = 8888.889\nsamples = 3\nvalue = 3666.667", fillcolor="#f8ddca"] ;
176 -> 177 ;
178 [label="squared_error = 0.0\nsamples = 1\nvalue = 3800.0", fillcolor="#f7d8c2"] ;
177 -> 178 ;
179 [label="squared_error = 0.0\nsamples = 2\nvalue = 3600.0", fillcolor="#f8e0ce"] ;
177 -> 179 ;
180 [label="FEMALE <= 0.5\nsquared_error = 27343.75\nsamples = 8\nvalue = 3887.5", fillcolor="#f6d5be"] ;
176 -> 180 ;
181 [label="culmen_length_mm <= 38.0\nsquared_error = 23888.889\nsamples = 3\nvalue = 4033.333", fillcolor="#f5d0b6"] ;
180 -> 181 ;
182 [label="squared_error = 0.0\nsamples = 1\nvalue = 4250.0", fillcolor="#f4c9aa"] ;
181 -> 182 ;
183 [label="Dream <= 0.5\nsquared_error = 625.0\nsamples = 2\nvalue = 3925.0", fillcolor="#f6d4bc"] ;
181 -> 183 ;
184 [label="squared_error = 0.0\nsamples = 1\nvalue = 3900.0", fillcolor="#f6d5bd"] ;
183 -> 184 ;
185 [label="squared_error = 0.0\nsamples = 1\nvalue = 3950.0", fillcolor="#f6d3ba"] ;
183 -> 185 ;
186 [label="culmen_length_mm <= 38.95\nsquared_error = 9000.0\nsamples = 5\nvalue = 3800.0", fillcolor="#f7d8c2"] ;
180 -> 186 ;
187 [label="Dream <= 0.5\nsquared_error = 4218.75\nsamples = 4\nvalue = 3837.5", fillcolor="#f7d7c0"] ;
186 -> 187 ;
188 [label="squared_error = 0.0\nsamples = 2\nvalue = 3800.0", fillcolor="#f7d8c2"] ;
187 -> 188 ;
189 [label="culmen_length_mm <= 37.3\nsquared_error = 5625.0\nsamples = 2\nvalue = 3875.0", fillcolor="#f7d6be"] ;
187 -> 189 ;
190 [label="squared_error = 0.0\nsamples = 1\nvalue = 3800.0", fillcolor="#f7d8c2"] ;
189 -> 190 ;
191 [label="squared_error = 0.0\nsamples = 1\nvalue = 3950.0", fillcolor="#f6d3ba"] ;
189 -> 191 ;
192 [label="squared_error = 0.0\nsamples = 1\nvalue = 3650.0", fillcolor="#f8decb"] ;
186 -> 192 ;
193 [label="culmen_depth_mm <= 20.5\nsquared_error = 85000.0\nsamples = 8\nvalue = 4275.0", fillcolor="#f4c8a8"] ;
175 -> 193 ;
194 [label="culmen_length_mm <= 39.95\nsquared_error = 80347.222\nsamples = 6\nvalue = 4358.333", fillcolor="#f3c5a4"] ;
193 -> 194 ;
195 [label="Dream <= 0.5\nsquared_error = 625.0\nsamples = 2\nvalue = 4625.0", fillcolor="#f1bc95"] ;
194 -> 195 ;
196 [label="squared_error = 0.0\nsamples = 1\nvalue = 4600.0", fillcolor="#f1bc96"] ;
195 -> 196 ;
197 [label="squared_error = 0.0\nsamples = 1\nvalue = 4650.0", fillcolor="#f1bb94"] ;
195 -> 197 ;
198 [label="flipper_length_mm <= 189.5\nsquared_error = 66875.0\nsamples = 4\nvalue = 4225.0", fillcolor="#f4caab"] ;
194 -> 198 ;
199 [label="MALE <= 0.5\nsquared_error = 26666.667\nsamples = 3\nvalue = 4100.0", fillcolor="#f5ceb2"] ;
198 -> 199 ;
200 [label="squared_error = 0.0\nsamples = 1\nvalue = 3900.0", fillcolor="#f6d5bd"] ;
199 -> 200 ;
201 [label="culmen_length_mm <= 40.6\nsquared_error = 10000.0\nsamples = 2\nvalue = 4200.0", fillcolor="#f4caac"] ;
199 -> 201 ;
202 [label="squared_error = 0.0\nsamples = 1\nvalue = 4300.0", fillcolor="#f3c7a7"] ;
201 -> 202 ;
203 [label="squared_error = 0.0\nsamples = 1\nvalue = 4100.0", fillcolor="#f5ceb2"] ;
201 -> 203 ;
204 [label="squared_error = 0.0\nsamples = 1\nvalue = 4600.0", fillcolor="#f1bc96"] ;
198 -> 204 ;
205 [label="culmen_length_mm <= 40.95\nsquared_error = 15625.0\nsamples = 2\nvalue = 4025.0", fillcolor="#f5d1b6"] ;
193 -> 205 ;
206 [label="squared_error = 0.0\nsamples = 1\nvalue = 3900.0", fillcolor="#f6d5bd"] ;
205 -> 206 ;
207 [label="squared_error = 0.0\nsamples = 1\nvalue = 4150.0", fillcolor="#f5ccaf"] ;
205 -> 207 ;
208 [label="culmen_length_mm <= 35.9\nsquared_error = 48242.188\nsamples = 8\nvalue = 3731.25", fillcolor="#f8dbc6"] ;
174 -> 208 ;
209 [label="squared_error = 0.0\nsamples = 1\nvalue = 4200.0", fillcolor="#f4caac"] ;
208 -> 209 ;
210 [label="culmen_length_mm <= 37.15\nsquared_error = 19260.204\nsamples = 7\nvalue = 3664.286", fillcolor="#f8ddca"] ;
208 -> 210 ;
211 [label="squared_error = 0.0\nsamples = 1\nvalue = 3450.0", fillcolor="#fae5d6"] ;
210 -> 211 ;
212 [label="flipper_length_mm <= 193.5\nsquared_error = 13541.667\nsamples = 6\nvalue = 3700.0", fillcolor="#f8dcc8"] ;
210 -> 212 ;
213 [label="squared_error = 0.0\nsamples = 2\nvalue = 3800.0", fillcolor="#f7d8c2"] ;
212 -> 213 ;
214 [label="MALE <= 0.5\nsquared_error = 12812.5\nsamples = 4\nvalue = 3650.0", fillcolor="#f8decb"] ;
212 -> 214 ;
215 [label="squared_error = 0.0\nsamples = 1\nvalue = 3775.0", fillcolor="#f7d9c4"] ;
214 -> 215 ;
216 [label="culmen_length_mm <= 39.45\nsquared_error = 10138.889\nsamples = 3\nvalue = 3608.333", fillcolor="#f8dfcd"] ;
214 -> 216 ;
217 [label="squared_error = 0.0\nsamples = 1\nvalue = 3750.0", fillcolor="#f7dac5"] ;
216 -> 217 ;
218 [label="culmen_depth_mm <= 19.85\nsquared_error = 156.25\nsamples = 2\nvalue = 3537.5", fillcolor="#f9e2d1"] ;
216 -> 218 ;
219 [label="squared_error = 0.0\nsamples = 1\nvalue = 3525.0", fillcolor="#f9e2d2"] ;
218 -> 219 ;
220 [label="squared_error = 0.0\nsamples = 1\nvalue = 3550.0", fillcolor="#f9e1d0"] ;
218 -> 220 ;
221 [label="flipper_length_mm <= 202.5\nsquared_error = 124403.01\nsamples = 47\nvalue = 4015.426", fillcolor="#f5d1b7"] ;
125 -> 221 ;
222 [label="culmen_depth_mm <= 20.6\nsquared_error = 118328.402\nsamples = 39\nvalue = 3961.538", fillcolor="#f6d3ba"] ;
221 -> 222 ;
223 [label="culmen_length_mm <= 46.7\nsquared_error = 108215.83\nsamples = 34\nvalue = 3904.412", fillcolor="#f6d5bd"] ;
222 -> 223 ;
224 [label="culmen_depth_mm <= 19.75\nsquared_error = 107075.617\nsamples = 18\nvalue = 4022.222", fillcolor="#f5d1b6"] ;
223 -> 224 ;
225 [label="culmen_depth_mm <= 19.55\nsquared_error = 103122.222\nsamples = 15\nvalue = 4076.667", fillcolor="#f5cfb3"] ;
224 -> 225 ;
226 [label="culmen_depth_mm <= 18.95\nsquared_error = 78380.178\nsamples = 13\nvalue = 4005.769", fillcolor="#f6d1b7"] ;
225 -> 226 ;
227 [label="culmen_length_mm <= 40.55\nsquared_error = 39990.234\nsamples = 8\nvalue = 4134.375", fillcolor="#f5cdb0"] ;
226 -> 227 ;
228 [label="culmen_length_mm <= 38.9\nsquared_error = 3906.25\nsamples = 2\nvalue = 4412.5", fillcolor="#f3c3a1"] ;
227 -> 228 ;
229 [label="squared_error = 0.0\nsamples = 1\nvalue = 4475.0", fillcolor="#f2c19d"] ;
228 -> 229 ;
230 [label="squared_error = 0.0\nsamples = 1\nvalue = 4350.0", fillcolor="#f3c5a4"] ;
228 -> 230 ;
231 [label="culmen_length_mm <= 42.1\nsquared_error = 17638.889\nsamples = 6\nvalue = 4041.667", fillcolor="#f5d0b5"] ;
227 -> 231 ;
232 [label="MALE <= 0.5\nsquared_error = 2916.667\nsamples = 3\nvalue = 3925.0", fillcolor="#f6d4bc"] ;
231 -> 232 ;
233 [label="squared_error = 0.0\nsamples = 1\nvalue = 4000.0", fillcolor="#f6d2b8"] ;
232 -> 233 ;
234 [label="Torgersen <= 0.5\nsquared_error = 156.25\nsamples = 2\nvalue = 3887.5", fillcolor="#f6d5be"] ;
232 -> 234 ;
235 [label="squared_error = 0.0\nsamples = 1\nvalue = 3900.0", fillcolor="#f6d5bd"] ;
234 -> 235 ;
236 [label="squared_error = 0.0\nsamples = 1\nvalue = 3875.0", fillcolor="#f7d6be"] ;
234 -> 236 ;
237 [label="flipper_length_mm <= 195.5\nsquared_error = 5138.889\nsamples = 3\nvalue = 4158.333", fillcolor="#f4ccaf"] ;
231 -> 237 ;
238 [label="squared_error = 0.0\nsamples = 1\nvalue = 4250.0", fillcolor="#f4c9aa"] ;
237 -> 238 ;
239 [label="culmen_depth_mm <= 18.6\nsquared_error = 1406.25\nsamples = 2\nvalue = 4112.5", fillcolor="#f5ceb1"] ;
237 -> 239 ;
240 [label="squared_error = 0.0\nsamples = 1\nvalue = 4075.0", fillcolor="#f5cfb3"] ;
239 -> 240 ;
241 [label="squared_error = 0.0\nsamples = 1\nvalue = 4150.0", fillcolor="#f5ccaf"] ;
239 -> 241 ;
242 [label="flipper_length_mm <= 198.0\nsquared_error = 71000.0\nsamples = 5\nvalue = 3800.0", fillcolor="#f7d8c2"] ;
226 -> 242 ;
243 [label="culmen_depth_mm <= 19.05\nsquared_error = 61666.667\nsamples = 3\nvalue = 3650.0", fillcolor="#f8decb"] ;
242 -> 243 ;
244 [label="squared_error = 0.0\nsamples = 1\nvalue = 3450.0", fillcolor="#fae5d6"] ;
243 -> 244 ;
245 [label="culmen_length_mm <= 42.6\nsquared_error = 62500.0\nsamples = 2\nvalue = 3750.0", fillcolor="#f7dac5"] ;
243 -> 245 ;
246 [label="squared_error = 0.0\nsamples = 1\nvalue = 4000.0", fillcolor="#f6d2b8"] ;
245 -> 246 ;
247 [label="squared_error = 0.0\nsamples = 1\nvalue = 3500.0", fillcolor="#f9e3d3"] ;
245 -> 247 ;
248 [label="Torgersen <= 0.5\nsquared_error = 625.0\nsamples = 2\nvalue = 4025.0", fillcolor="#f5d1b6"] ;
242 -> 248 ;
249 [label="squared_error = 0.0\nsamples = 1\nvalue = 4050.0", fillcolor="#f5d0b5"] ;
248 -> 249 ;
250 [label="squared_error = 0.0\nsamples = 1\nvalue = 4000.0", fillcolor="#f6d2b8"] ;
248 -> 250 ;
251 [label="culmen_length_mm <= 41.65\nsquared_error = 18906.25\nsamples = 2\nvalue = 4537.5", fillcolor="#f2bf9a"] ;
225 -> 251 ;
252 [label="squared_error = 0.0\nsamples = 1\nvalue = 4675.0", fillcolor="#f1ba92"] ;
251 -> 252 ;
253 [label="squared_error = 0.0\nsamples = 1\nvalue = 4400.0", fillcolor="#f3c4a2"] ;
251 -> 253 ;
254 [label="culmen_depth_mm <= 19.95\nsquared_error = 37916.667\nsamples = 3\nvalue = 3750.0", fillcolor="#f7dac5"] ;
224 -> 254 ;
255 [label="squared_error = 0.0\nsamples = 1\nvalue = 3500.0", fillcolor="#f9e3d3"] ;
254 -> 255 ;
256 [label="culmen_depth_mm <= 20.3\nsquared_error = 10000.0\nsamples = 2\nvalue = 3875.0", fillcolor="#f7d6be"] ;
254 -> 256 ;
257 [label="squared_error = 0.0\nsamples = 1\nvalue = 3975.0", fillcolor="#f6d2b9"] ;
256 -> 257 ;
258 [label="squared_error = 0.0\nsamples = 1\nvalue = 3775.0", fillcolor="#f7d9c4"] ;
256 -> 258 ;
259 [label="flipper_length_mm <= 200.5\nsquared_error = 76318.359\nsamples = 16\nvalue = 3771.875", fillcolor="#f7d9c4"] ;
223 -> 259 ;
260 [label="culmen_length_mm <= 50.25\nsquared_error = 35030.992\nsamples = 11\nvalue = 3640.909", fillcolor="#f8decb"] ;
259 -> 260 ;
261 [label="culmen_depth_mm <= 19.25\nsquared_error = 10400.0\nsamples = 5\nvalue = 3785.0", fillcolor="#f7d9c3"] ;
260 -> 261 ;
262 [label="culmen_length_mm <= 49.6\nsquared_error = 8867.188\nsamples = 4\nvalue = 3756.25", fillcolor="#f7dac5"] ;
261 -> 262 ;
263 [label="culmen_depth_mm <= 18.65\nsquared_error = 625.0\nsamples = 2\nvalue = 3825.0", fillcolor="#f7d8c1"] ;
262 -> 263 ;
264 [label="squared_error = 0.0\nsamples = 1\nvalue = 3850.0", fillcolor="#f7d7c0"] ;
263 -> 264 ;
265 [label="squared_error = 0.0\nsamples = 1\nvalue = 3800.0", fillcolor="#f7d8c2"] ;
263 -> 265 ;
266 [label="species <= 1.5\nsquared_error = 7656.25\nsamples = 2\nvalue = 3687.5", fillcolor="#f8dcc9"] ;
262 -> 266 ;
267 [label="squared_error = 0.0\nsamples = 1\nvalue = 3600.0", fillcolor="#f8e0ce"] ;
266 -> 267 ;
268 [label="squared_error = 0.0\nsamples = 1\nvalue = 3775.0", fillcolor="#f7d9c4"] ;
266 -> 268 ;
269 [label="squared_error = 0.0\nsamples = 1\nvalue = 3900.0", fillcolor="#f6d5bd"] ;
261 -> 269 ;
270 [label="culmen_length_mm <= 50.7\nsquared_error = 23836.806\nsamples = 6\nvalue = 3520.833", fillcolor="#f9e2d2"] ;
260 -> 270 ;
271 [label="culmen_length_mm <= 50.4\nsquared_error = 2500.0\nsamples = 2\nvalue = 3350.0", fillcolor="#fae8db"] ;
270 -> 271 ;
272 [label="squared_error = 0.0\nsamples = 1\nvalue = 3300.0", fillcolor="#fbeade"] ;
271 -> 272 ;
273 [label="squared_error = 0.0\nsamples = 1\nvalue = 3400.0", fillcolor="#fae7d9"] ;
271 -> 273 ;
274 [label="culmen_depth_mm <= 19.45\nsquared_error = 12617.188\nsamples = 4\nvalue = 3606.25", fillcolor="#f8dfcd"] ;
270 -> 274 ;
275 [label="culmen_length_mm <= 51.55\nsquared_error = 2500.0\nsamples = 2\nvalue = 3500.0", fillcolor="#f9e3d3"] ;
274 -> 275 ;
276 [label="squared_error = 0.0\nsamples = 1\nvalue = 3550.0", fillcolor="#f9e1d0"] ;
275 -> 276 ;
277 [label="squared_error = 0.0\nsamples = 1\nvalue = 3450.0", fillcolor="#fae5d6"] ;
275 -> 277 ;
278 [label="flipper_length_mm <= 197.5\nsquared_error = 156.25\nsamples = 2\nvalue = 3712.5", fillcolor="#f8dcc7"] ;
274 -> 278 ;
279 [label="squared_error = 0.0\nsamples = 1\nvalue = 3725.0", fillcolor="#f8dbc7"] ;
278 -> 279 ;
280 [label="squared_error = 0.0\nsamples = 1\nvalue = 3700.0", fillcolor="#f8dcc8"] ;
278 -> 280 ;
281 [label="culmen_depth_mm <= 18.65\nsquared_error = 46400.0\nsamples = 5\nvalue = 4060.0", fillcolor="#f5cfb4"] ;
259 -> 281 ;
282 [label="culmen_depth_mm <= 18.3\nsquared_error = 40000.0\nsamples = 2\nvalue = 4250.0", fillcolor="#f4c9aa"] ;
281 -> 282 ;
283 [label="squared_error = 0.0\nsamples = 1\nvalue = 4050.0", fillcolor="#f5d0b5"] ;
282 -> 283 ;
284 [label="squared_error = 0.0\nsamples = 1\nvalue = 4450.0", fillcolor="#f2c29f"] ;
282 -> 284 ;
285 [label="culmen_length_mm <= 50.35\nsquared_error = 10555.556\nsamples = 3\nvalue = 3933.333", fillcolor="#f6d4bb"] ;
281 -> 285 ;
286 [label="squared_error = 0.0\nsamples = 1\nvalue = 3800.0", fillcolor="#f7d8c2"] ;
285 -> 286 ;
287 [label="culmen_length_mm <= 50.95\nsquared_error = 2500.0\nsamples = 2\nvalue = 4000.0", fillcolor="#f6d2b8"] ;
285 -> 287 ;
288 [label="squared_error = 0.0\nsamples = 1\nvalue = 4050.0", fillcolor="#f5d0b5"] ;
287 -> 288 ;
289 [label="squared_error = 0.0\nsamples = 1\nvalue = 3950.0", fillcolor="#f6d3ba"] ;
287 -> 289 ;
290 [label="Dream <= 0.5\nsquared_error = 14000.0\nsamples = 5\nvalue = 4350.0", fillcolor="#f3c5a4"] ;
222 -> 290 ;
291 [label="culmen_depth_mm <= 20.9\nsquared_error = 2222.222\nsamples = 3\nvalue = 4433.333", fillcolor="#f2c2a0"] ;
290 -> 291 ;
292 [label="squared_error = 0.0\nsamples = 1\nvalue = 4500.0", fillcolor="#f2c09c"] ;
291 -> 292 ;
293 [label="squared_error = 0.0\nsamples = 2\nvalue = 4400.0", fillcolor="#f3c4a2"] ;
291 -> 293 ;
294 [label="species <= 0.5\nsquared_error = 5625.0\nsamples = 2\nvalue = 4225.0", fillcolor="#f4caab"] ;
290 -> 294 ;
295 [label="squared_error = 0.0\nsamples = 1\nvalue = 4150.0", fillcolor="#f5ccaf"] ;
294 -> 295 ;
296 [label="squared_error = 0.0\nsamples = 1\nvalue = 4300.0", fillcolor="#f3c7a7"] ;
294 -> 296 ;
297 [label="culmen_depth_mm <= 19.95\nsquared_error = 70849.609\nsamples = 8\nvalue = 4278.125", fillcolor="#f4c8a8"] ;
221 -> 297 ;
298 [label="culmen_length_mm <= 52.7\nsquared_error = 34513.889\nsamples = 6\nvalue = 4158.333", fillcolor="#f4ccaf"] ;
297 -> 298 ;
299 [label="species <= 0.5\nsquared_error = 13400.0\nsamples = 5\nvalue = 4090.0", fillcolor="#f5ceb3"] ;
298 -> 299 ;
300 [label="squared_error = 0.0\nsamples = 1\nvalue = 4300.0", fillcolor="#f3c7a7"] ;
299 -> 300 ;
301 [label="culmen_length_mm <= 51.45\nsquared_error = 2968.75\nsamples = 4\nvalue = 4037.5", fillcolor="#f5d0b5"] ;
299 -> 301 ;
302 [label="culmen_depth_mm <= 19.25\nsquared_error = 555.556\nsamples = 3\nvalue = 4066.667", fillcolor="#f5cfb4"] ;
301 -> 302 ;
303 [label="squared_error = 0.0\nsamples = 1\nvalue = 4100.0", fillcolor="#f5ceb2"] ;
302 -> 303 ;
304 [label="squared_error = 0.0\nsamples = 2\nvalue = 4050.0", fillcolor="#f5d0b5"] ;
302 -> 304 ;
305 [label="squared_error = 0.0\nsamples = 1\nvalue = 3950.0", fillcolor="#f6d3ba"] ;
301 -> 305 ;
306 [label="squared_error = 0.0\nsamples = 1\nvalue = 4500.0", fillcolor="#f2c09c"] ;
298 -> 306 ;
307 [label="FEMALE <= 0.5\nsquared_error = 7656.25\nsamples = 2\nvalue = 4637.5", fillcolor="#f1bb94"] ;
297 -> 307 ;
308 [label="squared_error = 0.0\nsamples = 1\nvalue = 4725.0", fillcolor="#f0b890"] ;
307 -> 308 ;
309 [label="squared_error = 0.0\nsamples = 1\nvalue = 4550.0", fillcolor="#f2be99"] ;
307 -> 309 ;
310 [label="flipper_length_mm <= 214.5\nsquared_error = 283399.584\nsamples = 95\nvalue = 5048.684", fillcolor="#eead7e"] ;
0 -> 310 [labeldistance=2.5, labelangle=-45, headlabel="False"] ;
311 [label="culmen_depth_mm <= 16.85\nsquared_error = 153099.589\nsamples = 34\nvalue = 4556.618", fillcolor="#f2be99"] ;
310 -> 311 ;
312 [label="culmen_length_mm <= 48.3\nsquared_error = 142878.667\nsamples = 28\nvalue = 4624.107", fillcolor="#f1bc95"] ;
311 -> 312 ;
313 [label="culmen_depth_mm <= 13.95\nsquared_error = 75364.583\nsamples = 24\nvalue = 4550.0", fillcolor="#f2be99"] ;
312 -> 313 ;
314 [label="flipper_length_mm <= 210.5\nsquared_error = 74586.777\nsamples = 11\nvalue = 4413.636", fillcolor="#f3c3a1"] ;
313 -> 314 ;
315 [label="culmen_length_mm <= 43.0\nsquared_error = 20555.556\nsamples = 6\nvalue = 4216.667", fillcolor="#f4caac"] ;
314 -> 315 ;
316 [label="culmen_length_mm <= 42.35\nsquared_error = 10000.0\nsamples = 2\nvalue = 4050.0", fillcolor="#f5d0b5"] ;
315 -> 316 ;
317 [label="squared_error = 0.0\nsamples = 1\nvalue = 4150.0", fillcolor="#f5ccaf"] ;
316 -> 317 ;
318 [label="squared_error = 0.0\nsamples = 1\nvalue = 3950.0", fillcolor="#f6d3ba"] ;
316 -> 318 ;
319 [label="culmen_length_mm <= 43.55\nsquared_error = 5000.0\nsamples = 4\nvalue = 4300.0", fillcolor="#f3c7a7"] ;
315 -> 319 ;
320 [label="squared_error = 0.0\nsamples = 1\nvalue = 4400.0", fillcolor="#f3c4a2"] ;
319 -> 320 ;
321 [label="FEMALE <= 0.5\nsquared_error = 2222.222\nsamples = 3\nvalue = 4266.667", fillcolor="#f4c8a9"] ;
319 -> 321 ;
322 [label="squared_error = 0.0\nsamples = 2\nvalue = 4300.0", fillcolor="#f3c7a7"] ;
321 -> 322 ;
323 [label="squared_error = 0.0\nsamples = 1\nvalue = 4200.0", fillcolor="#f4caac"] ;
321 -> 323 ;
324 [label="culmen_length_mm <= 45.3\nsquared_error = 37000.0\nsamples = 5\nvalue = 4650.0", fillcolor="#f1bb94"] ;
314 -> 324 ;
325 [label="MALE <= 0.5\nsquared_error = 15555.556\nsamples = 3\nvalue = 4783.333", fillcolor="#f0b68c"] ;
324 -> 325 ;
326 [label="culmen_length_mm <= 42.9\nsquared_error = 2500.0\nsamples = 2\nvalue = 4700.0", fillcolor="#f1b991"] ;
325 -> 326 ;
327 [label="squared_error = 0.0\nsamples = 1\nvalue = 4650.0", fillcolor="#f1bb94"] ;
326 -> 327 ;
328 [label="squared_error = 0.0\nsamples = 1\nvalue = 4750.0", fillcolor="#f0b78e"] ;
326 -> 328 ;
329 [label="squared_error = 0.0\nsamples = 1\nvalue = 4950.0", fillcolor="#efb083"] ;
325 -> 329 ;
330 [label="culmen_length_mm <= 45.9\nsquared_error = 2500.0\nsamples = 2\nvalue = 4450.0", fillcolor="#f2c29f"] ;
324 -> 330 ;
331 [label="squared_error = 0.0\nsamples = 1\nvalue = 4400.0", fillcolor="#f3c4a2"] ;
330 -> 331 ;
332 [label="squared_error = 0.0\nsamples = 1\nvalue = 4500.0", fillcolor="#f2c09c"] ;
330 -> 332 ;
333 [label="flipper_length_mm <= 207.5\nsquared_error = 46974.852\nsamples = 13\nvalue = 4665.385", fillcolor="#f1ba93"] ;
313 -> 333 ;
334 [label="squared_error = 0.0\nsamples = 1\nvalue = 5050.0", fillcolor="#eead7e"] ;
333 -> 334 ;
335 [label="MALE <= 0.5\nsquared_error = 37534.722\nsamples = 12\nvalue = 4633.333", fillcolor="#f1bb95"] ;
333 -> 335 ;
336 [label="culmen_length_mm <= 43.9\nsquared_error = 9600.0\nsamples = 5\nvalue = 4745.0", fillcolor="#f0b78f"] ;
335 -> 336 ;
337 [label="flipper_length_mm <= 208.5\nsquared_error = 3906.25\nsamples = 2\nvalue = 4637.5", fillcolor="#f1bb94"] ;
336 -> 337 ;
338 [label="squared_error = 0.0\nsamples = 1\nvalue = 4575.0", fillcolor="#f1bd98"] ;
337 -> 338 ;
339 [label="squared_error = 0.0\nsamples = 1\nvalue = 4700.0", fillcolor="#f1b991"] ;
337 -> 339 ;
340 [label="culmen_depth_mm <= 14.65\nsquared_error = 555.556\nsamples = 3\nvalue = 4816.667", fillcolor="#f0b58b"] ;
336 -> 340 ;
341 [label="squared_error = 0.0\nsamples = 2\nvalue = 4800.0", fillcolor="#f0b68c"] ;
340 -> 341 ;
342 [label="squared_error = 0.0\nsamples = 1\nvalue = 4850.0", fillcolor="#efb489"] ;
340 -> 342 ;
343 [label="culmen_depth_mm <= 14.15\nsquared_error = 42219.388\nsamples = 7\nvalue = 4553.571", fillcolor="#f2be99"] ;
335 -> 343 ;
344 [label="squared_error = 0.0\nsamples = 1\nvalue = 4875.0", fillcolor="#efb387"] ;
343 -> 344 ;
345 [label="culmen_depth_mm <= 14.65\nsquared_error = 29166.667\nsamples = 6\nvalue = 4500.0", fillcolor="#f2c09c"] ;
343 -> 345 ;
346 [label="culmen_depth_mm <= 14.55\nsquared_error = 20468.75\nsamples = 4\nvalue = 4412.5", fillcolor="#f3c3a1"] ;
345 -> 346 ;
347 [label="culmen_depth_mm <= 14.4\nsquared_error = 7222.222\nsamples = 3\nvalue = 4483.333", fillcolor="#f2c19d"] ;
346 -> 347 ;
348 [label="squared_error = 0.0\nsamples = 1\nvalue = 4600.0", fillcolor="#f1bc96"] ;
347 -> 348 ;
349 [label="culmen_length_mm <= 44.85\nsquared_error = 625.0\nsamples = 2\nvalue = 4425.0", fillcolor="#f3c3a0"] ;
347 -> 349 ;
350 [label="squared_error = 0.0\nsamples = 1\nvalue = 4450.0", fillcolor="#f2c29f"] ;
349 -> 350 ;
351 [label="squared_error = 0.0\nsamples = 1\nvalue = 4400.0", fillcolor="#f3c4a2"] ;
349 -> 351 ;
352 [label="squared_error = 0.0\nsamples = 1\nvalue = 4200.0", fillcolor="#f4caac"] ;
346 -> 352 ;
353 [label="culmen_depth_mm <= 14.95\nsquared_error = 625.0\nsamples = 2\nvalue = 4675.0", fillcolor="#f1ba92"] ;
345 -> 353 ;
354 [label="squared_error = 0.0\nsamples = 1\nvalue = 4700.0", fillcolor="#f1b991"] ;
353 -> 354 ;
355 [label="squared_error = 0.0\nsamples = 1\nvalue = 4650.0", fillcolor="#f1bb94"] ;
353 -> 355 ;
356 [label="culmen_depth_mm <= 14.55\nsquared_error = 317304.688\nsamples = 4\nvalue = 5068.75", fillcolor="#eeac7d"] ;
312 -> 356 ;
357 [label="culmen_depth_mm <= 14.3\nsquared_error = 7656.25\nsamples = 2\nvalue = 4537.5", fillcolor="#f2bf9a"] ;
356 -> 357 ;
358 [label="squared_error = 0.0\nsamples = 1\nvalue = 4450.0", fillcolor="#f2c29f"] ;
357 -> 358 ;
359 [label="squared_error = 0.0\nsamples = 1\nvalue = 4625.0", fillcolor="#f1bc95"] ;
357 -> 359 ;
360 [label="MALE <= 0.5\nsquared_error = 62500.0\nsamples = 2\nvalue = 5600.0", fillcolor="#ea9a60"] ;
356 -> 360 ;
361 [label="squared_error = 0.0\nsamples = 1\nvalue = 5350.0", fillcolor="#eca26d"] ;
360 -> 361 ;
362 [label="squared_error = 0.0\nsamples = 1\nvalue = 5850.0", fillcolor="#e89152"] ;
360 -> 362 ;
363 [label="culmen_depth_mm <= 20.15\nsquared_error = 80347.222\nsamples = 6\nvalue = 4241.667", fillcolor="#f4c9aa"] ;
311 -> 363 ;
364 [label="MALE <= 0.5\nsquared_error = 21600.0\nsamples = 5\nvalue = 4130.0", fillcolor="#f5cdb0"] ;
363 -> 364 ;
365 [label="squared_error = 0.0\nsamples = 1\nvalue = 3950.0", fillcolor="#f6d3ba"] ;
364 -> 365 ;
366 [label="culmen_depth_mm <= 18.45\nsquared_error = 16875.0\nsamples = 4\nvalue = 4175.0", fillcolor="#f4cbae"] ;
364 -> 366 ;
367 [label="squared_error = 0.0\nsamples = 1\nvalue = 4000.0", fillcolor="#f6d2b8"] ;
366 -> 367 ;
368 [label="species <= 1.5\nsquared_error = 8888.889\nsamples = 3\nvalue = 4233.333", fillcolor="#f4c9ab"] ;
366 -> 368 ;
369 [label="squared_error = 0.0\nsamples = 2\nvalue = 4300.0", fillcolor="#f3c7a7"] ;
368 -> 369 ;
370 [label="squared_error = 0.0\nsamples = 1\nvalue = 4100.0", fillcolor="#f5ceb2"] ;
368 -> 370 ;
371 [label="squared_error = 0.0\nsamples = 1\nvalue = 4800.0", fillcolor="#f0b68c"] ;
363 -> 371 ;
372 [label="culmen_length_mm <= 47.75\nsquared_error = 145846.211\nsamples = 61\nvalue = 5322.951", fillcolor="#eca36f"] ;
310 -> 372 ;
373 [label="culmen_depth_mm <= 15.95\nsquared_error = 80299.745\nsamples = 28\nvalue = 5053.571", fillcolor="#eead7e"] ;
372 -> 373 ;
374 [label="culmen_depth_mm <= 14.45\nsquared_error = 44486.0\nsamples = 25\nvalue = 4992.0", fillcolor="#eeaf81"] ;
373 -> 374 ;
375 [label="flipper_length_mm <= 217.5\nsquared_error = 17448.98\nsamples = 7\nvalue = 4792.857", fillcolor="#f0b68c"] ;
374 -> 375 ;
376 [label="culmen_length_mm <= 43.25\nsquared_error = 7968.75\nsamples = 4\nvalue = 4887.5", fillcolor="#efb287"] ;
375 -> 376 ;
377 [label="squared_error = 0.0\nsamples = 1\nvalue = 5000.0", fillcolor="#eeae80"] ;
376 -> 377 ;
378 [label="culmen_depth_mm <= 13.85\nsquared_error = 5000.0\nsamples = 3\nvalue = 4850.0", fillcolor="#efb489"] ;
376 -> 378 ;
379 [label="squared_error = 0.0\nsamples = 1\nvalue = 4750.0", fillcolor="#f0b78e"] ;
378 -> 379 ;
380 [label="squared_error = 0.0\nsamples = 2\nvalue = 4900.0", fillcolor="#efb286"] ;
378 -> 380 ;
381 [label="culmen_length_mm <= 43.45\nsquared_error = 2222.222\nsamples = 3\nvalue = 4666.667", fillcolor="#f1ba93"] ;
375 -> 381 ;
382 [label="squared_error = 0.0\nsamples = 1\nvalue = 4600.0", fillcolor="#f1bc96"] ;
381 -> 382 ;
383 [label="squared_error = 0.0\nsamples = 2\nvalue = 4700.0", fillcolor="#f1b991"] ;
381 -> 383 ;
384 [label="culmen_length_mm <= 47.65\nsquared_error = 33580.247\nsamples = 18\nvalue = 5069.444", fillcolor="#eeac7d"] ;
374 -> 384 ;
385 [label="culmen_length_mm <= 47.55\nsquared_error = 29199.827\nsamples = 17\nvalue = 5088.235", fillcolor="#eeab7c"] ;
384 -> 385 ;
386 [label="MALE <= 0.5\nsquared_error = 24570.312\nsamples = 16\nvalue = 5068.75", fillcolor="#eeac7d"] ;
385 -> 386 ;
387 [label="culmen_length_mm <= 46.25\nsquared_error = 26318.359\nsamples = 8\nvalue = 4996.875", fillcolor="#eeaf81"] ;
386 -> 387 ;
388 [label="culmen_depth_mm <= 15.6\nsquared_error = 12400.0\nsamples = 5\nvalue = 5090.0", fillcolor="#eeab7c"] ;
387 -> 388 ;
389 [label="culmen_depth_mm <= 15.05\nsquared_error = 1718.75\nsamples = 4\nvalue = 5037.5", fillcolor="#eead7e"] ;
388 -> 389 ;
390 [label="squared_error = 0.0\nsamples = 2\nvalue = 5000.0", fillcolor="#eeae80"] ;
389 -> 390 ;
391 [label="culmen_depth_mm <= 15.25\nsquared_error = 625.0\nsamples = 2\nvalue = 5075.0", fillcolor="#eeac7c"] ;
389 -> 391 ;
392 [label="squared_error = 0.0\nsamples = 1\nvalue = 5100.0", fillcolor="#eeab7b"] ;
391 -> 392 ;
393 [label="squared_error = 0.0\nsamples = 1\nvalue = 5050.0", fillcolor="#eead7e"] ;
391 -> 393 ;
394 [label="squared_error = 0.0\nsamples = 1\nvalue = 5300.0", fillcolor="#eca470"] ;
388 -> 394 ;
395 [label="flipper_length_mm <= 217.0\nsquared_error = 10972.222\nsamples = 3\nvalue = 4841.667", fillcolor="#f0b489"] ;
387 -> 395 ;
396 [label="squared_error = 0.0\nsamples = 1\nvalue = 4700.0", fillcolor="#f1b991"] ;
395 -> 396 ;
397 [label="culmen_length_mm <= 47.2\nsquared_error = 1406.25\nsamples = 2\nvalue = 4912.5", fillcolor="#efb285"] ;
395 -> 397 ;
398 [label="squared_error = 0.0\nsamples = 1\nvalue = 4875.0", fillcolor="#efb387"] ;
397 -> 398 ;
399 [label="squared_error = 0.0\nsamples = 1\nvalue = 4950.0", fillcolor="#efb083"] ;
397 -> 399 ;
400 [label="culmen_depth_mm <= 15.45\nsquared_error = 12490.234\nsamples = 8\nvalue = 5140.625", fillcolor="#edaa79"] ;
386 -> 400 ;
401 [label="flipper_length_mm <= 220.0\nsquared_error = 2600.0\nsamples = 5\nvalue = 5220.0", fillcolor="#eda774"] ;
400 -> 401 ;
402 [label="culmen_depth_mm <= 15.35\nsquared_error = 555.556\nsamples = 3\nvalue = 5183.333", fillcolor="#eda876"] ;
401 -> 402 ;
403 [label="squared_error = 0.0\nsamples = 2\nvalue = 5200.0", fillcolor="#eda876"] ;
402 -> 403 ;
404 [label="squared_error = 0.0\nsamples = 1\nvalue = 5150.0", fillcolor="#eda978"] ;
402 -> 404 ;
405 [label="flipper_length_mm <= 221.5\nsquared_error = 625.0\nsamples = 2\nvalue = 5275.0", fillcolor="#eca571"] ;
401 -> 405 ;
406 [label="squared_error = 0.0\nsamples = 1\nvalue = 5300.0", fillcolor="#eca470"] ;
405 -> 406 ;
407 [label="squared_error = 0.0\nsamples = 1\nvalue = 5250.0", fillcolor="#eda673"] ;
405 -> 407 ;
408 [label="culmen_depth_mm <= 15.7\nsquared_error = 972.222\nsamples = 3\nvalue = 5008.333", fillcolor="#eeae80"] ;
400 -> 408 ;
409 [label="culmen_depth_mm <= 15.55\nsquared_error = 156.25\nsamples = 2\nvalue = 4987.5", fillcolor="#eeaf81"] ;
408 -> 409 ;
410 [label="squared_error = 0.0\nsamples = 1\nvalue = 4975.0", fillcolor="#efaf82"] ;
409 -> 410 ;
411 [label="squared_error = 0.0\nsamples = 1\nvalue = 5000.0", fillcolor="#eeae80"] ;
409 -> 411 ;
412 [label="squared_error = 0.0\nsamples = 1\nvalue = 5050.0", fillcolor="#eead7e"] ;
408 -> 412 ;
413 [label="squared_error = 0.0\nsamples = 1\nvalue = 5400.0", fillcolor="#eca06a"] ;
385 -> 413 ;
414 [label="squared_error = 0.0\nsamples = 1\nvalue = 4750.0", fillcolor="#f0b78e"] ;
384 -> 414 ;
415 [label="flipper_length_mm <= 221.0\nsquared_error = 83888.889\nsamples = 3\nvalue = 5566.667", fillcolor="#ea9b61"] ;
373 -> 415 ;
416 [label="FEMALE <= 0.5\nsquared_error = 15625.0\nsamples = 2\nvalue = 5375.0", fillcolor="#eca16c"] ;
415 -> 416 ;
417 [label="squared_error = 0.0\nsamples = 1\nvalue = 5250.0", fillcolor="#eda673"] ;
416 -> 417 ;
418 [label="squared_error = 0.0\nsamples = 1\nvalue = 5500.0", fillcolor="#eb9d65"] ;
416 -> 418 ;
419 [label="squared_error = 0.0\nsamples = 1\nvalue = 5950.0", fillcolor="#e88d4c"] ;
415 -> 419 ;
420 [label="flipper_length_mm <= 216.5\nsquared_error = 87649.219\nsamples = 33\nvalue = 5551.515", fillcolor="#ea9b62"] ;
372 -> 420 ;
421 [label="culmen_length_mm <= 49.3\nsquared_error = 140468.75\nsamples = 4\nvalue = 5237.5", fillcolor="#eda673"] ;
420 -> 421 ;
422 [label="flipper_length_mm <= 215.5\nsquared_error = 2500.0\nsamples = 2\nvalue = 5600.0", fillcolor="#ea9a60"] ;
421 -> 422 ;
423 [label="squared_error = 0.0\nsamples = 1\nvalue = 5650.0", fillcolor="#ea985d"] ;
422 -> 423 ;
424 [label="squared_error = 0.0\nsamples = 1\nvalue = 5550.0", fillcolor="#ea9b62"] ;
422 -> 424 ;
425 [label="FEMALE <= 0.5\nsquared_error = 15625.0\nsamples = 2\nvalue = 4875.0", fillcolor="#efb387"] ;
421 -> 425 ;
426 [label="squared_error = 0.0\nsamples = 1\nvalue = 5000.0", fillcolor="#eeae80"] ;
425 -> 426 ;
427 [label="squared_error = 0.0\nsamples = 1\nvalue = 4750.0", fillcolor="#f0b78e"] ;
425 -> 427 ;
428 [label="culmen_length_mm <= 49.15\nsquared_error = 64887.039\nsamples = 29\nvalue = 5594.828", fillcolor="#ea9a60"] ;
420 -> 428 ;
429 [label="flipper_length_mm <= 225.0\nsquared_error = 47040.816\nsamples = 7\nvalue = 5371.429", fillcolor="#eca26c"] ;
428 -> 429 ;
430 [label="culmen_length_mm <= 48.3\nsquared_error = 13400.0\nsamples = 5\nvalue = 5260.0", fillcolor="#eda572"] ;
429 -> 430 ;
431 [label="squared_error = 0.0\nsamples = 1\nvalue = 5100.0", fillcolor="#eeab7b"] ;
430 -> 431 ;
432 [label="culmen_length_mm <= 48.9\nsquared_error = 8750.0\nsamples = 4\nvalue = 5300.0", fillcolor="#eca470"] ;
430 -> 432 ;
433 [label="culmen_length_mm <= 48.45\nsquared_error = 1666.667\nsamples = 3\nvalue = 5350.0", fillcolor="#eca26d"] ;
432 -> 433 ;
434 [label="squared_error = 0.0\nsamples = 1\nvalue = 5400.0", fillcolor="#eca06a"] ;
433 -> 434 ;
435 [label="MALE <= 0.5\nsquared_error = 625.0\nsamples = 2\nvalue = 5325.0", fillcolor="#eca36f"] ;
433 -> 435 ;
436 [label="squared_error = 0.0\nsamples = 1\nvalue = 5300.0", fillcolor="#eca470"] ;
435 -> 436 ;
437 [label="squared_error = 0.0\nsamples = 1\nvalue = 5350.0", fillcolor="#eca26d"] ;
435 -> 437 ;
438 [label="squared_error = 0.0\nsamples = 1\nvalue = 5150.0", fillcolor="#eda978"] ;
432 -> 438 ;
439 [label="culmen_depth_mm <= 15.5\nsquared_error = 22500.0\nsamples = 2\nvalue = 5650.0", fillcolor="#ea985d"] ;
429 -> 439 ;
440 [label="squared_error = 0.0\nsamples = 1\nvalue = 5500.0", fillcolor="#eb9d65"] ;
439 -> 440 ;
441 [label="squared_error = 0.0\nsamples = 1\nvalue = 5800.0", fillcolor="#e99254"] ;
439 -> 441 ;
442 [label="culmen_length_mm <= 49.25\nsquared_error = 49633.264\nsamples = 22\nvalue = 5665.909", fillcolor="#ea975c"] ;
428 -> 442 ;
443 [label="squared_error = 0.0\nsamples = 1\nvalue = 6300.0", fillcolor="#e58139"] ;
442 -> 443 ;
444 [label="culmen_length_mm <= 49.9\nsquared_error = 31938.776\nsamples = 21\nvalue = 5635.714", fillcolor="#ea985e"] ;
442 -> 444 ;
445 [label="culmen_depth_mm <= 15.95\nsquared_error = 10625.0\nsamples = 6\nvalue = 5775.0", fillcolor="#e99356"] ;
444 -> 445 ;
446 [label="culmen_length_mm <= 49.55\nsquared_error = 2500.0\nsamples = 2\nvalue = 5900.0", fillcolor="#e88f4f"] ;
445 -> 446 ;
447 [label="squared_error = 0.0\nsamples = 1\nvalue = 5850.0", fillcolor="#e89152"] ;
446 -> 447 ;
448 [label="squared_error = 0.0\nsamples = 1\nvalue = 5950.0", fillcolor="#e88d4c"] ;
446 -> 448 ;
449 [label="flipper_length_mm <= 227.0\nsquared_error = 2968.75\nsamples = 4\nvalue = 5712.5", fillcolor="#e99659"] ;
445 -> 449 ;
450 [label="culmen_length_mm <= 49.55\nsquared_error = 625.0\nsamples = 2\nvalue = 5675.0", fillcolor="#ea975b"] ;
449 -> 450 ;
451 [label="squared_error = 0.0\nsamples = 1\nvalue = 5650.0", fillcolor="#ea985d"] ;
450 -> 451 ;
452 [label="squared_error = 0.0\nsamples = 1\nvalue = 5700.0", fillcolor="#e9965a"] ;
450 -> 452 ;
453 [label="culmen_depth_mm <= 16.5\nsquared_error = 2500.0\nsamples = 2\nvalue = 5750.0", fillcolor="#e99457"] ;
449 -> 453 ;
454 [label="squared_error = 0.0\nsamples = 1\nvalue = 5800.0", fillcolor="#e99254"] ;
453 -> 454 ;
455 [label="squared_error = 0.0\nsamples = 1\nvalue = 5700.0", fillcolor="#e9965a"] ;
453 -> 455 ;
456 [label="flipper_length_mm <= 220.5\nsquared_error = 29600.0\nsamples = 15\nvalue = 5580.0", fillcolor="#ea9a61"] ;
444 -> 456 ;
457 [label="culmen_depth_mm <= 15.8\nsquared_error = 26718.75\nsamples = 4\nvalue = 5737.5", fillcolor="#e99558"] ;
456 -> 457 ;
458 [label="flipper_length_mm <= 219.0\nsquared_error = 5000.0\nsamples = 3\nvalue = 5650.0", fillcolor="#ea985d"] ;
457 -> 458 ;
459 [label="squared_error = 0.0\nsamples = 2\nvalue = 5700.0", fillcolor="#e9965a"] ;
458 -> 459 ;
460 [label="squared_error = 0.0\nsamples = 1\nvalue = 5550.0", fillcolor="#ea9b62"] ;
458 -> 460 ;
461 [label="squared_error = 0.0\nsamples = 1\nvalue = 6000.0", fillcolor="#e78c4a"] ;
457 -> 461 ;
462 [label="flipper_length_mm <= 227.0\nsquared_error = 18347.107\nsamples = 11\nvalue = 5522.727", fillcolor="#eb9c64"] ;
456 -> 462 ;
463 [label="flipper_length_mm <= 225.0\nsquared_error = 17013.889\nsamples = 6\nvalue = 5441.667", fillcolor="#eb9f68"] ;
462 -> 463 ;
464 [label="culmen_length_mm <= 50.2\nsquared_error = 6400.0\nsamples = 5\nvalue = 5490.0", fillcolor="#eb9d66"] ;
463 -> 464 ;
465 [label="squared_error = 0.0\nsamples = 1\nvalue = 5350.0", fillcolor="#eca26d"] ;
464 -> 465 ;
466 [label="flipper_length_mm <= 221.5\nsquared_error = 1875.0\nsamples = 4\nvalue = 5525.0", fillcolor="#eb9c64"] ;
464 -> 466 ;
467 [label="squared_error = 0.0\nsamples = 1\nvalue = 5450.0", fillcolor="#eb9f68"] ;
466 -> 467 ;
468 [label="squared_error = 0.0\nsamples = 3\nvalue = 5550.0", fillcolor="#ea9b62"] ;
466 -> 468 ;
469 [label="squared_error = 0.0\nsamples = 1\nvalue = 5200.0", fillcolor="#eda876"] ;
463 -> 469 ;
470 [label="culmen_depth_mm <= 16.65\nsquared_error = 2600.0\nsamples = 5\nvalue = 5620.0", fillcolor="#ea995e"] ;
462 -> 470 ;
471 [label="culmen_length_mm <= 52.15\nsquared_error = 625.0\nsamples = 2\nvalue = 5675.0", fillcolor="#ea975b"] ;
470 -> 471 ;
472 [label="squared_error = 0.0\nsamples = 1\nvalue = 5700.0", fillcolor="#e9965a"] ;
471 -> 472 ;
473 [label="squared_error = 0.0\nsamples = 1\nvalue = 5650.0", fillcolor="#ea985d"] ;
471 -> 473 ;
474 [label="flipper_length_mm <= 229.0\nsquared_error = 555.556\nsamples = 3\nvalue = 5583.333", fillcolor="#ea9a60"] ;
470 -> 474 ;
475 [label="squared_error = 0.0\nsamples = 2\nvalue = 5600.0", fillcolor="#ea9a60"] ;
474 -> 475 ;
476 [label="squared_error = 0.0\nsamples = 1\nvalue = 5550.0", fillcolor="#ea9b62"] ;
474 -> 476 ;
}