digraph Tree {
node [shape=box, style="filled, rounded", color="black", fontname="helvetica"] ;
edge [fontname="helvetica"] ;
0 [label="flipper_length_mm <= 206.5\ngini = 0.644\nsamples = 259\nvalue = [108, 55, 96]\nclass = Adelie", fillcolor="#fdf6f0"] ;
1 [label="culmen_length_mm <= 44.65\ngini = 0.477\nsamples = 164\nvalue = [106, 53, 5]\nclass = Adelie", fillcolor="#f3c3a0"] ;
0 -> 1 [labeldistance=2.5, labelangle=45, headlabel="True"] ;
2 [label="gini = 0.176\nsamples = 114\nvalue = [103, 10, 1]\nclass = Adelie", fillcolor="#e88e4e"] ;
1 -> 2 ;
3 [label="gini = 0.25\nsamples = 50\nvalue = [3, 43, 4]\nclass = Chinstrap", fillcolor="#57e994"] ;
1 -> 3 ;
4 [label="culmen_depth_mm <= 17.65\ngini = 0.082\nsamples = 95\nvalue = [2, 2, 91]\nclass = Gentoo", fillcolor="#8642e6"] ;
0 -> 4 [labeldistance=2.5, labelangle=-45, headlabel="False"] ;
5 [label="gini = 0.0\nsamples = 90\nvalue = [0, 0, 90]\nclass = Gentoo", fillcolor="#8139e5"] ;
4 -> 5 ;
6 [label="gini = 0.64\nsamples = 5\nvalue = [2, 2, 1]\nclass = Adelie", fillcolor="#ffffff"] ;
4 -> 6 ;
}